digraph Tree {
node [shape=box, style="filled, rounded", color="black", fontname="helvetica"] ;
edge [fontname="helvetica"] ;
0 [label="G2 <= 10.5\nsquared_error = 20.23\nsamples = 296\nvalue = 10.385", fillcolor="#f1be98"] ;
1 [label="absences <= 1.0\nsquared_error = 14.766\nsamples = 143\nvalue = 7.056", fillcolor="#f6d3b9"] ;
0 -> 1 [labeldistance=2.5, labelangle=45, headlabel="True"] ;
2 [label="G2 <= 7.5\nsquared_error = 20.325\nsamples = 46\nvalue = 3.391", fillcolor="#fbeadd"] ;
1 -> 2 ;
3 [label="goout <= 1.5\nsquared_error = 1.562\nsamples = 22\nvalue = 0.273", fillcolor="#fffdfc"] ;
2 -> 3 ;
4 [label="Fedu <= 2.0\nsquared_error = 9.0\nsamples = 2\nvalue = 3.0", fillcolor="#fbece1"] ;
3 -> 4 ;
5 [label="squared_error = 0.0\nsamples = 1\nvalue = 0.0", fillcolor="#ffffff"] ;
4 -> 5 ;
6 [label="squared_error = 0.0\nsamples = 1\nvalue = 6.0", fillcolor="#f7d9c4"] ;
4 -> 6 ;
7 [label="squared_error = 0.0\nsamples = 20\nvalue = 0.0", fillcolor="#ffffff"] ;
3 -> 7 ;
8 [label="age <= 16.5\nsquared_error = 20.438\nsamples = 24\nvalue = 6.25", fillcolor="#f7d8c1"] ;
2 -> 8 ;
9 [label="Fjob <= 1.5\nsquared_error = 0.8\nsamples = 10\nvalue = 10.0", fillcolor="#f2c09c"] ;
8 -> 9 ;
10 [label="reason <= 1.5\nsquared_error = 0.25\nsamples = 2\nvalue = 8.5", fillcolor="#f4c9ab"] ;
9 -> 10 ;
11 [label="squared_error = 0.0\nsamples = 1\nvalue = 8.0", fillcolor="#f5cdb0"] ;
10 -> 11 ;
12 [label="squared_error = 0.0\nsamples = 1\nvalue = 9.0", fillcolor="#f3c6a6"] ;
10 -> 12 ;
13 [label="health <= 1.5\nsquared_error = 0.234\nsamples = 8\nvalue = 10.375", fillcolor="#f2be98"] ;
9 -> 13 ;
14 [label="squared_error = 0.0\nsamples = 2\nvalue = 11.0", fillcolor="#f1ba92"] ;
13 -> 14 ;
15 [label="paid <= 0.5\nsquared_error = 0.139\nsamples = 6\nvalue = 10.167", fillcolor="#f2bf9a"] ;
13 -> 15 ;
16 [label="squared_error = 0.0\nsamples = 4\nvalue = 10.0", fillcolor="#f2c09c"] ;
15 -> 16 ;
17 [label="G2 <= 9.5\nsquared_error = 0.25\nsamples = 2\nvalue = 10.5", fillcolor="#f1bd97"] ;
15 -> 17 ;
18 [label="squared_error = 0.0\nsamples = 1\nvalue = 10.0", fillcolor="#f2c09c"] ;
17 -> 18 ;
19 [label="squared_error = 0.0\nsamples = 1\nvalue = 11.0", fillcolor="#f1ba92"] ;
17 -> 19 ;
20 [label="reason <= 0.5\nsquared_error = 17.245\nsamples = 14\nvalue = 3.571", fillcolor="#fae8dc"] ;
8 -> 20 ;
21 [label="studytime <= 3.5\nsquared_error = 8.98\nsamples = 7\nvalue = 7.143", fillcolor="#f6d2b8"] ;
20 -> 21 ;
22 [label="G1 <= 7.5\nsquared_error = 0.556\nsamples = 6\nvalue = 8.333", fillcolor="#f4caac"] ;
21 -> 22 ;
23 [label="failures <= 2.0\nsquared_error = 0.222\nsamples = 3\nvalue = 7.667", fillcolor="#f5cfb3"] ;
22 -> 23 ;
24 [label="squared_error = 0.0\nsamples = 2\nvalue = 8.0", fillcolor="#f5cdb0"] ;
23 -> 24 ;
25 [label="squared_error = 0.0\nsamples = 1\nvalue = 7.0", fillcolor="#f6d3ba"] ;
23 -> 25 ;
26 [label="squared_error = 0.0\nsamples = 3\nvalue = 9.0", fillcolor="#f3c6a6"] ;
22 -> 26 ;
27 [label="squared_error = 0.0\nsamples = 1\nvalue = 0.0", fillcolor="#ffffff"] ;
21 -> 27 ;
28 [label="squared_error = 0.0\nsamples = 7\nvalue = 0.0", fillcolor="#ffffff"] ;
20 -> 28 ;
29 [label="G2 <= 7.5\nsquared_error = 2.741\nsamples = 97\nvalue = 8.794", fillcolor="#f4c8a8"] ;
1 -> 29 ;
30 [label="goout <= 4.5\nsquared_error = 1.543\nsamples = 23\nvalue = 6.609", fillcolor="#f6d5be"] ;
29 -> 30 ;
31 [label="Walc <= 2.5\nsquared_error = 1.111\nsamples = 18\nvalue = 7.0", fillcolor="#f6d3ba"] ;
30 -> 31 ;
32 [label="failures <= 0.5\nsquared_error = 0.359\nsamples = 8\nvalue = 6.125", fillcolor="#f7d8c2"] ;
31 -> 32 ;
33 [label="freetime <= 3.5\nsquared_error = 0.139\nsamples = 6\nvalue = 5.833", fillcolor="#f7dac5"] ;
32 -> 33 ;
34 [label="squared_error = 0.0\nsamples = 5\nvalue = 6.0", fillcolor="#f7d9c4"] ;
33 -> 34 ;
35 [label="squared_error = 0.0\nsamples = 1\nvalue = 5.0", fillcolor="#f8e0ce"] ;
33 -> 35 ;
36 [label="squared_error = 0.0\nsamples = 2\nvalue = 7.0", fillcolor="#f6d3ba"] ;
32 -> 36 ;
37 [label="age <= 16.5\nsquared_error = 0.61\nsamples = 10\nvalue = 7.7", fillcolor="#f5ceb3"] ;
31 -> 37 ;
38 [label="Mjob <= 3.0\nsquared_error = 0.25\nsamples = 2\nvalue = 6.5", fillcolor="#f7d6bf"] ;
37 -> 38 ;
39 [label="squared_error = 0.0\nsamples = 1\nvalue = 6.0", fillcolor="#f7d9c4"] ;
38 -> 39 ;
40 [label="squared_error = 0.0\nsamples = 1\nvalue = 7.0", fillcolor="#f6d3ba"] ;
38 -> 40 ;
41 [label="reason <= 2.5\nsquared_error = 0.25\nsamples = 8\nvalue = 8.0", fillcolor="#f5cdb0"] ;
37 -> 41 ;
42 [label="nursery <= 0.5\nsquared_error = 0.122\nsamples = 7\nvalue = 7.857", fillcolor="#f5ceb1"] ;
41 -> 42 ;
43 [label="squared_error = 0.0\nsamples = 1\nvalue = 7.0", fillcolor="#f6d3ba"] ;
42 -> 43 ;
44 [label="squared_error = 0.0\nsamples = 6\nvalue = 8.0", fillcolor="#f5cdb0"] ;
42 -> 44 ;
45 [label="squared_error = 0.0\nsamples = 1\nvalue = 9.0", fillcolor="#f3c6a6"] ;
41 -> 45 ;
46 [label="Walc <= 2.5\nsquared_error = 0.56\nsamples = 5\nvalue = 5.2", fillcolor="#f8decc"] ;
30 -> 46 ;
47 [label="squared_error = 0.0\nsamples = 2\nvalue = 6.0", fillcolor="#f7d9c4"] ;
46 -> 47 ;
48 [label="romantic <= 0.5\nsquared_error = 0.222\nsamples = 3\nvalue = 4.667", fillcolor="#f9e2d1"] ;
46 -> 48 ;
49 [label="squared_error = 0.0\nsamples = 2\nvalue = 5.0", fillcolor="#f8e0ce"] ;
48 -> 49 ;
50 [label="squared_error = 0.0\nsamples = 1\nvalue = 4.0", fillcolor="#fae6d7"] ;
48 -> 50 ;
51 [label="G2 <= 9.5\nsquared_error = 1.168\nsamples = 74\nvalue = 9.473", fillcolor="#f3c3a1"] ;
29 -> 51 ;
52 [label="G2 <= 8.5\nsquared_error = 0.995\nsamples = 43\nvalue = 8.93", fillcolor="#f3c7a7"] ;
51 -> 52 ;
53 [label="traveltime <= 3.5\nsquared_error = 0.871\nsamples = 16\nvalue = 8.438", fillcolor="#f4caab"] ;
52 -> 53 ;
54 [label="Mjob <= 0.5\nsquared_error = 0.454\nsamples = 14\nvalue = 8.214", fillcolor="#f4cbae"] ;
53 -> 54 ;
55 [label="freetime <= 3.5\nsquared_error = 0.667\nsamples = 3\nvalue = 9.0", fillcolor="#f3c6a6"] ;
54 -> 55 ;
56 [label="squared_error = 0.0\nsamples = 1\nvalue = 10.0", fillcolor="#f2c09c"] ;
55 -> 56 ;
57 [label="Walc <= 3.0\nsquared_error = 0.25\nsamples = 2\nvalue = 8.5", fillcolor="#f4c9ab"] ;
55 -> 57 ;
58 [label="squared_error = 0.0\nsamples = 1\nvalue = 9.0", fillcolor="#f3c6a6"] ;
57 -> 58 ;
59 [label="squared_error = 0.0\nsamples = 1\nvalue = 8.0", fillcolor="#f5cdb0"] ;
57 -> 59 ;
60 [label="internet <= 0.5\nsquared_error = 0.182\nsamples = 11\nvalue = 8.0", fillcolor="#f5cdb0"] ;
54 -> 60 ;
61 [label="squared_error = 0.0\nsamples = 1\nvalue = 7.0", fillcolor="#f6d3ba"] ;
60 -> 61 ;
62 [label="address <= 0.5\nsquared_error = 0.09\nsamples = 10\nvalue = 8.1", fillcolor="#f4ccaf"] ;
60 -> 62 ;
63 [label="health <= 4.0\nsquared_error = 0.25\nsamples = 2\nvalue = 8.5", fillcolor="#f4c9ab"] ;
62 -> 63 ;
64 [label="squared_error = 0.0\nsamples = 1\nvalue = 9.0", fillcolor="#f3c6a6"] ;
63 -> 64 ;
65 [label="squared_error = 0.0\nsamples = 1\nvalue = 8.0", fillcolor="#f5cdb0"] ;
63 -> 65 ;
66 [label="squared_error = 0.0\nsamples = 8\nvalue = 8.0", fillcolor="#f5cdb0"] ;
62 -> 66 ;
67 [label="age <= 17.0\nsquared_error = 1.0\nsamples = 2\nvalue = 10.0", fillcolor="#f2c09c"] ;
53 -> 67 ;
68 [label="squared_error = 0.0\nsamples = 1\nvalue = 11.0", fillcolor="#f1ba92"] ;
67 -> 68 ;
69 [label="squared_error = 0.0\nsamples = 1\nvalue = 9.0", fillcolor="#f3c6a6"] ;
67 -> 69 ;
70 [label="age <= 15.5\nsquared_error = 0.84\nsamples = 27\nvalue = 9.222", fillcolor="#f3c5a4"] ;
52 -> 70 ;
71 [label="G1 <= 6.0\nsquared_error = 0.188\nsamples = 4\nvalue = 7.75", fillcolor="#f5ceb2"] ;
70 -> 71 ;
72 [label="squared_error = 0.0\nsamples = 1\nvalue = 7.0", fillcolor="#f6d3ba"] ;
71 -> 72 ;
73 [label="squared_error = 0.0\nsamples = 3\nvalue = 8.0", fillcolor="#f5cdb0"] ;
71 -> 73 ;
74 [label="Fjob <= 2.5\nsquared_error = 0.51\nsamples = 23\nvalue = 9.478", fillcolor="#f3c3a1"] ;
70 -> 74 ;
75 [label="absences <= 11.0\nsquared_error = 0.462\nsamples = 15\nvalue = 9.733", fillcolor="#f2c29f"] ;
74 -> 75 ;
76 [label="freetime <= 2.5\nsquared_error = 0.225\nsamples = 13\nvalue = 9.923", fillcolor="#f2c09d"] ;
75 -> 76 ;
77 [label="freetime <= 1.5\nsquared_error = 0.222\nsamples = 3\nvalue = 9.333", fillcolor="#f3c4a3"] ;
76 -> 77 ;
78 [label="squared_error = 0.0\nsamples = 1\nvalue = 10.0", fillcolor="#f2c09c"] ;
77 -> 78 ;
79 [label="squared_error = 0.0\nsamples = 2\nvalue = 9.0", fillcolor="#f3c6a6"] ;
77 -> 79 ;
80 [label="nursery <= 0.5\nsquared_error = 0.09\nsamples = 10\nvalue = 10.1", fillcolor="#f2bf9b"] ;
76 -> 80 ;
81 [label="Fedu <= 1.5\nsquared_error = 0.25\nsamples = 2\nvalue = 10.5", fillcolor="#f1bd97"] ;
80 -> 81 ;
82 [label="squared_error = 0.0\nsamples = 1\nvalue = 10.0", fillcolor="#f2c09c"] ;
81 -> 82 ;
83 [label="squared_error = 0.0\nsamples = 1\nvalue = 11.0", fillcolor="#f1ba92"] ;
81 -> 83 ;
84 [label="squared_error = 0.0\nsamples = 8\nvalue = 10.0", fillcolor="#f2c09c"] ;
80 -> 84 ;
85 [label="G1 <= 10.0\nsquared_error = 0.25\nsamples = 2\nvalue = 8.5", fillcolor="#f4c9ab"] ;
75 -> 85 ;
86 [label="squared_error = 0.0\nsamples = 1\nvalue = 8.0", fillcolor="#f5cdb0"] ;
85 -> 86 ;
87 [label="squared_error = 0.0\nsamples = 1\nvalue = 9.0", fillcolor="#f3c6a6"] ;
85 -> 87 ;
88 [label="G1 <= 7.5\nsquared_error = 0.25\nsamples = 8\nvalue = 9.0", fillcolor="#f3c6a6"] ;
74 -> 88 ;
89 [label="squared_error = 0.0\nsamples = 1\nvalue = 8.0", fillcolor="#f5cdb0"] ;
88 -> 89 ;
90 [label="famsize <= 0.5\nsquared_error = 0.122\nsamples = 7\nvalue = 9.143", fillcolor="#f3c5a4"] ;
88 -> 90 ;
91 [label="squared_error = 0.0\nsamples = 6\nvalue = 9.0", fillcolor="#f3c6a6"] ;
90 -> 91 ;
92 [label="squared_error = 0.0\nsamples = 1\nvalue = 10.0", fillcolor="#f2c09c"] ;
90 -> 92 ;
93 [label="guardian <= 0.5\nsquared_error = 0.433\nsamples = 31\nvalue = 10.226", fillcolor="#f2bf9a"] ;
51 -> 93 ;
94 [label="schoolsup <= 0.5\nsquared_error = 0.234\nsamples = 8\nvalue = 9.625", fillcolor="#f2c2a0"] ;
93 -> 94 ;
95 [label="squared_error = 0.0\nsamples = 5\nvalue = 10.0", fillcolor="#f2c09c"] ;
94 -> 95 ;
96 [label="squared_error = 0.0\nsamples = 3\nvalue = 9.0", fillcolor="#f3c6a6"] ;
94 -> 96 ;
97 [label="famsup <= 0.5\nsquared_error = 0.333\nsamples = 23\nvalue = 10.435", fillcolor="#f1bd98"] ;
93 -> 97 ;
98 [label="paid <= 0.5\nsquared_error = 0.222\nsamples = 3\nvalue = 11.333", fillcolor="#f0b88f"] ;
97 -> 98 ;
99 [label="squared_error = 0.0\nsamples = 1\nvalue = 12.0", fillcolor="#efb388"] ;
98 -> 99 ;
100 [label="squared_error = 0.0\nsamples = 2\nvalue = 11.0", fillcolor="#f1ba92"] ;
98 -> 100 ;
101 [label="Walc <= 2.5\nsquared_error = 0.21\nsamples = 20\nvalue = 10.3", fillcolor="#f2be99"] ;
97 -> 101 ;
102 [label="Mjob <= 0.5\nsquared_error = 0.25\nsamples = 12\nvalue = 10.5", fillcolor="#f1bd97"] ;
101 -> 102 ;
103 [label="squared_error = 0.0\nsamples = 4\nvalue = 10.0", fillcolor="#f2c09c"] ;
102 -> 103 ;
104 [label="internet <= 0.5\nsquared_error = 0.188\nsamples = 8\nvalue = 10.75", fillcolor="#f1bb95"] ;
102 -> 104 ;
105 [label="squared_error = 0.0\nsamples = 2\nvalue = 10.0", fillcolor="#f2c09c"] ;
104 -> 105 ;
106 [label="squared_error = 0.0\nsamples = 6\nvalue = 11.0", fillcolor="#f1ba92"] ;
104 -> 106 ;
107 [label="squared_error = 0.0\nsamples = 8\nvalue = 10.0", fillcolor="#f2c09c"] ;
101 -> 107 ;
108 [label="G2 <= 13.5\nsquared_error = 5.296\nsamples = 153\nvalue = 13.497", fillcolor="#edaa79"] ;
0 -> 108 [labeldistance=2.5, labelangle=-45, headlabel="False"] ;
109 [label="G2 <= 12.5\nsquared_error = 1.361\nsamples = 91\nvalue = 11.956", fillcolor="#efb489"] ;
108 -> 109 ;
110 [label="G2 <= 11.5\nsquared_error = 0.937\nsamples = 64\nvalue = 11.484", fillcolor="#f0b78d"] ;
109 -> 110 ;
111 [label="G1 <= 13.5\nsquared_error = 0.645\nsamples = 27\nvalue = 10.852", fillcolor="#f1bb94"] ;
110 -> 111 ;
112 [label="goout <= 3.5\nsquared_error = 0.485\nsamples = 26\nvalue = 10.769", fillcolor="#f1bb94"] ;
111 -> 112 ;
113 [label="internet <= 0.5\nsquared_error = 0.366\nsamples = 19\nvalue = 10.947", fillcolor="#f1ba93"] ;
112 -> 113 ;
114 [label="Fjob <= 2.0\nsquared_error = 0.25\nsamples = 4\nvalue = 11.5", fillcolor="#f0b78d"] ;
113 -> 114 ;
115 [label="squared_error = 0.0\nsamples = 2\nvalue = 11.0", fillcolor="#f1ba92"] ;
114 -> 115 ;
116 [label="squared_error = 0.0\nsamples = 2\nvalue = 12.0", fillcolor="#efb388"] ;
114 -> 116 ;
117 [label="Fjob <= 2.5\nsquared_error = 0.293\nsamples = 15\nvalue = 10.8", fillcolor="#f1bb94"] ;
113 -> 117 ;
118 [label="Dalc <= 1.5\nsquared_error = 0.109\nsamples = 8\nvalue = 11.125", fillcolor="#f1b991"] ;
117 -> 118 ;
119 [label="squared_error = 0.0\nsamples = 7\nvalue = 11.0", fillcolor="#f1ba92"] ;
118 -> 119 ;
120 [label="squared_error = 0.0\nsamples = 1\nvalue = 12.0", fillcolor="#efb388"] ;
118 -> 120 ;
121 [label="traveltime <= 1.5\nsquared_error = 0.245\nsamples = 7\nvalue = 10.429", fillcolor="#f1bd98"] ;
117 -> 121 ;
122 [label="squared_error = 0.0\nsamples = 3\nvalue = 11.0", fillcolor="#f1ba92"] ;
121 -> 122 ;
123 [label="squared_error = 0.0\nsamples = 4\nvalue = 10.0", fillcolor="#f2c09c"] ;
121 -> 123 ;
124 [label="famsize <= 0.5\nsquared_error = 0.49\nsamples = 7\nvalue = 10.286", fillcolor="#f2be99"] ;
112 -> 124 ;
125 [label="Mjob <= 0.5\nsquared_error = 0.188\nsamples = 4\nvalue = 10.75", fillcolor="#f1bb95"] ;
124 -> 125 ;
126 [label="squared_error = 0.0\nsamples = 1\nvalue = 10.0", fillcolor="#f2c09c"] ;
125 -> 126 ;
127 [label="squared_error = 0.0\nsamples = 3\nvalue = 11.0", fillcolor="#f1ba92"] ;
125 -> 127 ;
128 [label="Medu <= 3.5\nsquared_error = 0.222\nsamples = 3\nvalue = 9.667", fillcolor="#f2c29f"] ;
124 -> 128 ;
129 [label="squared_error = 0.0\nsamples = 1\nvalue = 9.0", fillcolor="#f3c6a6"] ;
128 -> 129 ;
130 [label="squared_error = 0.0\nsamples = 2\nvalue = 10.0", fillcolor="#f2c09c"] ;
128 -> 130 ;
131 [label="squared_error = 0.0\nsamples = 1\nvalue = 13.0", fillcolor="#eead7e"] ;
111 -> 131 ;
132 [label="Walc <= 1.5\nsquared_error = 0.646\nsamples = 37\nvalue = 11.946", fillcolor="#efb489"] ;
110 -> 132 ;
133 [label="Medu <= 3.5\nsquared_error = 0.64\nsamples = 15\nvalue = 12.4", fillcolor="#efb184"] ;
132 -> 133 ;
134 [label="health <= 2.5\nsquared_error = 0.472\nsamples = 12\nvalue = 12.167", fillcolor="#efb287"] ;
133 -> 134 ;
135 [label="squared_error = 0.0\nsamples = 3\nvalue = 13.0", fillcolor="#eead7e"] ;
134 -> 135 ;
136 [label="reason <= 2.0\nsquared_error = 0.321\nsamples = 9\nvalue = 11.889", fillcolor="#f0b489"] ;
134 -> 136 ;
137 [label="G1 <= 12.5\nsquared_error = 0.25\nsamples = 4\nvalue = 11.5", fillcolor="#f0b78d"] ;
136 -> 137 ;
138 [label="squared_error = 0.0\nsamples = 2\nvalue = 11.0", fillcolor="#f1ba92"] ;
137 -> 138 ;
139 [label="squared_error = 0.0\nsamples = 2\nvalue = 12.0", fillcolor="#efb388"] ;
137 -> 139 ;
140 [label="health <= 4.5\nsquared_error = 0.16\nsamples = 5\nvalue = 12.2", fillcolor="#efb286"] ;
136 -> 140 ;
141 [label="squared_error = 0.0\nsamples = 4\nvalue = 12.0", fillcolor="#efb388"] ;
140 -> 141 ;
142 [label="squared_error = 0.0\nsamples = 1\nvalue = 13.0", fillcolor="#eead7e"] ;
140 -> 142 ;
143 [label="G1 <= 14.5\nsquared_error = 0.222\nsamples = 3\nvalue = 13.333", fillcolor="#eeab7b"] ;
133 -> 143 ;
144 [label="squared_error = 0.0\nsamples = 2\nvalue = 13.0", fillcolor="#eead7e"] ;
143 -> 144 ;
145 [label="squared_error = 0.0\nsamples = 1\nvalue = 14.0", fillcolor="#eda774"] ;
143 -> 145 ;
146 [label="famsize <= 0.5\nsquared_error = 0.413\nsamples = 22\nvalue = 11.636", fillcolor="#f0b68c"] ;
132 -> 146 ;
147 [label="absences <= 1.0\nsquared_error = 0.23\nsamples = 14\nvalue = 11.357", fillcolor="#f0b78f"] ;
146 -> 147 ;
148 [label="squared_error = 0.0\nsamples = 3\nvalue = 12.0", fillcolor="#efb388"] ;
147 -> 148 ;
149 [label="guardian <= 0.5\nsquared_error = 0.149\nsamples = 11\nvalue = 11.182", fillcolor="#f0b990"] ;
147 -> 149 ;
150 [label="address <= 0.5\nsquared_error = 0.222\nsamples = 3\nvalue = 11.667", fillcolor="#f0b68c"] ;
149 -> 150 ;
151 [label="squared_error = 0.0\nsamples = 1\nvalue = 11.0", fillcolor="#f1ba92"] ;
150 -> 151 ;
152 [label="squared_error = 0.0\nsamples = 2\nvalue = 12.0", fillcolor="#efb388"] ;
150 -> 152 ;
153 [label="squared_error = 0.0\nsamples = 8\nvalue = 11.0", fillcolor="#f1ba92"] ;
149 -> 153 ;
154 [label="Dalc <= 2.5\nsquared_error = 0.359\nsamples = 8\nvalue = 12.125", fillcolor="#efb387"] ;
146 -> 154 ;
155 [label="famrel <= 1.5\nsquared_error = 0.139\nsamples = 6\nvalue = 11.833", fillcolor="#f0b48a"] ;
154 -> 155 ;
156 [label="squared_error = 0.0\nsamples = 1\nvalue = 11.0", fillcolor="#f1ba92"] ;
155 -> 156 ;
157 [label="squared_error = 0.0\nsamples = 5\nvalue = 12.0", fillcolor="#efb388"] ;
155 -> 157 ;
158 [label="squared_error = 0.0\nsamples = 2\nvalue = 13.0", fillcolor="#eead7e"] ;
154 -> 158 ;
159 [label="Walc <= 1.5\nsquared_error = 0.587\nsamples = 27\nvalue = 13.074", fillcolor="#eead7e"] ;
109 -> 159 ;
160 [label="Mjob <= 1.5\nsquared_error = 0.234\nsamples = 8\nvalue = 13.625", fillcolor="#eda978"] ;
159 -> 160 ;
161 [label="squared_error = 0.0\nsamples = 3\nvalue = 13.0", fillcolor="#eead7e"] ;
160 -> 161 ;
162 [label="squared_error = 0.0\nsamples = 5\nvalue = 14.0", fillcolor="#eda774"] ;
160 -> 162 ;
163 [label="age <= 16.5\nsquared_error = 0.554\nsamples = 19\nvalue = 12.842", fillcolor="#eeae80"] ;
159 -> 163 ;
164 [label="nursery <= 0.5\nsquared_error = 0.612\nsamples = 11\nvalue = 12.545", fillcolor="#efb083"] ;
163 -> 164 ;
165 [label="romantic <= 0.5\nsquared_error = 0.25\nsamples = 2\nvalue = 11.5", fillcolor="#f0b78d"] ;
164 -> 165 ;
166 [label="squared_error = 0.0\nsamples = 1\nvalue = 11.0", fillcolor="#f1ba92"] ;
165 -> 166 ;
167 [label="squared_error = 0.0\nsamples = 1\nvalue = 12.0", fillcolor="#efb388"] ;
165 -> 167 ;
168 [label="Walc <= 4.5\nsquared_error = 0.395\nsamples = 9\nvalue = 12.778", fillcolor="#eeae80"] ;
164 -> 168 ;
169 [label="absences <= 1.0\nsquared_error = 0.234\nsamples = 8\nvalue = 12.625", fillcolor="#efaf82"] ;
168 -> 169 ;
170 [label="squared_error = 0.0\nsamples = 2\nvalue = 12.0", fillcolor="#efb388"] ;
169 -> 170 ;
171 [label="absences <= 10.0\nsquared_error = 0.139\nsamples = 6\nvalue = 12.833", fillcolor="#eeae80"] ;
169 -> 171 ;
172 [label="squared_error = 0.0\nsamples = 5\nvalue = 13.0", fillcolor="#eead7e"] ;
171 -> 172 ;
173 [label="squared_error = 0.0\nsamples = 1\nvalue = 12.0", fillcolor="#efb388"] ;
171 -> 173 ;
174 [label="squared_error = 0.0\nsamples = 1\nvalue = 14.0", fillcolor="#eda774"] ;
168 -> 174 ;
175 [label="reason <= 1.5\nsquared_error = 0.188\nsamples = 8\nvalue = 13.25", fillcolor="#eeac7c"] ;
163 -> 175 ;
176 [label="squared_error = 0.0\nsamples = 5\nvalue = 13.0", fillcolor="#eead7e"] ;
175 -> 176 ;
177 [label="paid <= 0.5\nsquared_error = 0.222\nsamples = 3\nvalue = 13.667", fillcolor="#eda978"] ;
175 -> 177 ;
178 [label="squared_error = 0.0\nsamples = 2\nvalue = 14.0", fillcolor="#eda774"] ;
177 -> 178 ;
179 [label="squared_error = 0.0\nsamples = 1\nvalue = 13.0", fillcolor="#eead7e"] ;
177 -> 179 ;
180 [label="G2 <= 16.5\nsquared_error = 2.474\nsamples = 62\nvalue = 15.758", fillcolor="#eb9c63"] ;
108 -> 180 ;
181 [label="G2 <= 14.5\nsquared_error = 0.949\nsamples = 49\nvalue = 15.102", fillcolor="#eba069"] ;
180 -> 181 ;
182 [label="Dalc <= 2.5\nsquared_error = 0.382\nsamples = 15\nvalue = 14.133", fillcolor="#eda673"] ;
181 -> 182 ;
183 [label="activities <= 0.5\nsquared_error = 0.311\nsamples = 14\nvalue = 14.214", fillcolor="#eda572"] ;
182 -> 183 ;
184 [label="Fjob <= 1.5\nsquared_error = 0.188\nsamples = 4\nvalue = 14.75", fillcolor="#eca26d"] ;
183 -> 184 ;
185 [label="squared_error = 0.0\nsamples = 1\nvalue = 14.0", fillcolor="#eda774"] ;
184 -> 185 ;
186 [label="squared_error = 0.0\nsamples = 3\nvalue = 15.0", fillcolor="#eca06a"] ;
184 -> 186 ;
187 [label="traveltime <= 1.5\nsquared_error = 0.2\nsamples = 10\nvalue = 14.0", fillcolor="#eda774"] ;
183 -> 187 ;
188 [label="G1 <= 15.5\nsquared_error = 0.099\nsamples = 9\nvalue = 14.111", fillcolor="#eda673"] ;
187 -> 188 ;
189 [label="squared_error = 0.0\nsamples = 8\nvalue = 14.0", fillcolor="#eda774"] ;
188 -> 189 ;
190 [label="squared_error = 0.0\nsamples = 1\nvalue = 15.0", fillcolor="#eca06a"] ;
188 -> 190 ;
191 [label="squared_error = 0.0\nsamples = 1\nvalue = 13.0", fillcolor="#eead7e"] ;
187 -> 191 ;
192 [label="squared_error = 0.0\nsamples = 1\nvalue = 13.0", fillcolor="#eead7e"] ;
182 -> 192 ;
193 [label="G2 <= 15.5\nsquared_error = 0.602\nsamples = 34\nvalue = 15.529", fillcolor="#eb9d65"] ;
181 -> 193 ;
194 [label="absences <= 2.5\nsquared_error = 0.386\nsamples = 23\nvalue = 15.304", fillcolor="#eb9f67"] ;
193 -> 194 ;
195 [label="internet <= 0.5\nsquared_error = 0.196\nsamples = 15\nvalue = 15.067", fillcolor="#eba06a"] ;
194 -> 195 ;
196 [label="squared_error = 0.0\nsamples = 1\nvalue = 14.0", fillcolor="#eda774"] ;
195 -> 196 ;
197 [label="Fedu <= 0.5\nsquared_error = 0.122\nsamples = 14\nvalue = 15.143", fillcolor="#eba069"] ;
195 -> 197 ;
198 [label="squared_error = 0.0\nsamples = 1\nvalue = 16.0", fillcolor="#ea9a61"] ;
197 -> 198 ;
199 [label="Fjob <= 3.5\nsquared_error = 0.071\nsamples = 13\nvalue = 15.077", fillcolor="#eba06a"] ;
197 -> 199 ;
200 [label="squared_error = 0.0\nsamples = 12\nvalue = 15.0", fillcolor="#eca06a"] ;
199 -> 200 ;
201 [label="squared_error = 0.0\nsamples = 1\nvalue = 16.0", fillcolor="#ea9a61"] ;
199 -> 201 ;
202 [label="Walc <= 2.5\nsquared_error = 0.438\nsamples = 8\nvalue = 15.75", fillcolor="#eb9c63"] ;
194 -> 202 ;
203 [label="studytime <= 3.5\nsquared_error = 0.188\nsamples = 4\nvalue = 16.25", fillcolor="#ea995e"] ;
202 -> 203 ;
204 [label="squared_error = 0.0\nsamples = 3\nvalue = 16.0", fillcolor="#ea9a61"] ;
203 -> 204 ;
205 [label="squared_error = 0.0\nsamples = 1\nvalue = 17.0", fillcolor="#e99457"] ;
203 -> 205 ;
206 [label="G1 <= 14.5\nsquared_error = 0.188\nsamples = 4\nvalue = 15.25", fillcolor="#eb9f68"] ;
202 -> 206 ;
207 [label="squared_error = 0.0\nsamples = 1\nvalue = 16.0", fillcolor="#ea9a61"] ;
206 -> 207 ;
208 [label="squared_error = 0.0\nsamples = 3\nvalue = 15.0", fillcolor="#eca06a"] ;
206 -> 208 ;
209 [label="famrel <= 4.5\nsquared_error = 0.727\nsamples = 11\nvalue = 16.0", fillcolor="#ea9a61"] ;
193 -> 209 ;
210 [label="goout <= 1.5\nsquared_error = 0.395\nsamples = 9\nvalue = 15.778", fillcolor="#ea9c63"] ;
209 -> 210 ;
211 [label="squared_error = 0.0\nsamples = 1\nvalue = 17.0", fillcolor="#e99457"] ;
210 -> 211 ;
212 [label="Fjob <= 2.5\nsquared_error = 0.234\nsamples = 8\nvalue = 15.625", fillcolor="#eb9d64"] ;
210 -> 212 ;
213 [label="squared_error = 0.0\nsamples = 5\nvalue = 16.0", fillcolor="#ea9a61"] ;
212 -> 213 ;
214 [label="squared_error = 0.0\nsamples = 3\nvalue = 15.0", fillcolor="#eca06a"] ;
212 -> 214 ;
215 [label="school <= 0.5\nsquared_error = 1.0\nsamples = 2\nvalue = 17.0", fillcolor="#e99457"] ;
209 -> 215 ;
216 [label="squared_error = 0.0\nsamples = 1\nvalue = 18.0", fillcolor="#e88e4d"] ;
215 -> 216 ;
217 [label="squared_error = 0.0\nsamples = 1\nvalue = 16.0", fillcolor="#ea9a61"] ;
215 -> 217 ;
218 [label="G1 <= 18.5\nsquared_error = 0.485\nsamples = 13\nvalue = 18.231", fillcolor="#e78c4b"] ;
180 -> 218 ;
219 [label="Dalc <= 2.5\nsquared_error = 0.243\nsamples = 12\nvalue = 18.083", fillcolor="#e78d4c"] ;
218 -> 219 ;
220 [label="Fjob <= 0.5\nsquared_error = 0.149\nsamples = 11\nvalue = 18.182", fillcolor="#e78c4b"] ;
219 -> 220 ;
221 [label="squared_error = 0.0\nsamples = 1\nvalue = 19.0", fillcolor="#e68743"] ;
220 -> 221 ;
222 [label="health <= 1.5\nsquared_error = 0.09\nsamples = 10\nvalue = 18.1", fillcolor="#e78d4c"] ;
220 -> 222 ;
223 [label="Pstatus <= 0.5\nsquared_error = 0.25\nsamples = 2\nvalue = 18.5", fillcolor="#e78a48"] ;
222 -> 223 ;
224 [label="squared_error = 0.0\nsamples = 1\nvalue = 19.0", fillcolor="#e68743"] ;
223 -> 224 ;
225 [label="squared_error = 0.0\nsamples = 1\nvalue = 18.0", fillcolor="#e88e4d"] ;
223 -> 225 ;
226 [label="squared_error = 0.0\nsamples = 8\nvalue = 18.0", fillcolor="#e88e4d"] ;
222 -> 226 ;
227 [label="squared_error = 0.0\nsamples = 1\nvalue = 17.0", fillcolor="#e99457"] ;
219 -> 227 ;
228 [label="squared_error = 0.0\nsamples = 1\nvalue = 20.0", fillcolor="#e58139"] ;
218 -> 228 ;
}